{
  "conv1d": {
    "bias:0": [
      -0.010830727405846119,
      -0.015510320663452148,
      -0.06106298044323921,
      0.036252569407224655
    ],
    "kernel:0": [
      [
        [
          0.23519891500473022,
          -0.0920330062508583,
          0.9113194942474365,
          -0.5061696767807007
        ]
      ],
      [
        [
          -0.1581154763698578,
          -0.18773005902767181,
          0.061737313866615295,
          0.3204992115497589
        ]
      ],
      [
        [
          -0.322293758392334,
          -0.1343822330236435,
          0.1877065747976303,
          -0.024387672543525696
        ]
      ],
      [
        [
          -0.4305841326713562,
          -0.020010976120829582,
          -0.0049390955828130245,
          0.12137383967638016
        ]
      ],
      [
        [
          -0.0925675630569458,
          -0.28393062949180603,
          0.03728017583489418,
          0.09853442758321762
        ]
      ],
      [
        [
          -0.1781597137451172,
          -0.24082788825035095,
          -0.1486760973930359,
          0.20704494416713715
        ]
      ],
      [
        [
          -0.045512229204177856,
          -0.09631884098052979,
          -0.04342513531446457,
          -0.01982301101088524
        ]
      ],
      [
        [
          0.18684208393096924,
          -0.3281495273113251,
          -0.1108243390917778,
          0.1282687783241272
        ]
      ],
      [
        [
          0.40375447273254395,
          -0.30778300762176514,
          -0.05542615056037903,
          -0.014935178682208061
        ]
      ],
      [
        [
          0.05687433481216431,
          -0.17362727224826813,
          -0.16732436418533325,
          -0.24030132591724396
        ]
      ],
      [
        [
          0.1615600287914276,
          -0.14927874505519867,
          -0.08605685830116272,
          0.07646345347166061
        ]
      ],
      [
        [
          -0.17497563362121582,
          -0.06165158376097679,
          -0.2347692847251892,
          -0.8011237382888794
        ]
      ]
    ]
  },
  "conv1d_1": {
    "bias:0": [
      0.1838342845439911,
      0.0931478962302208,
      0.44423460960388184,
      0.06029030680656433
    ],
    "kernel:0": [
      [
        [
          0.24126160144805908,
          -0.005470097064971924,
          -0.19251585006713867,
          0.014160215854644775
        ],
        [
          0.14586412906646729,
          0.03632938861846924,
          0.028383314609527588,
          -0.19757091999053955
        ],
        [
          -0.01605987548828125,
          -0.13857942819595337,
          -0.2332121729850769,
          -0.12718814611434937
        ],
        [
          0.22396177053451538,
          -0.029458701610565186,
          0.026523828506469727,
          -0.24003678560256958
        ]
      ],
      [
        [
          -0.21211518347263336,
          -0.013603147119283676,
          0.4458394944667816,
          -0.04515872523188591
        ],
        [
          -0.3533079922199249,
          -0.8362460136413574,
          0.8774868249893188,
          0.5193249583244324
        ],
        [
          -0.4126850664615631,
          1.2824020385742188,
          -1.359631061553955,
          -0.7318041920661926
        ],
        [
          0.3728715479373932,
          -0.7743887305259705,
          0.7051651477813721,
          0.3530288338661194
        ]
      ],
      [
        [
          0.3447832763195038,
          -0.22070066630840302,
          -0.18507683277130127,
          -0.08006014674901962
        ],
        [
          -0.23852509260177612,
          0.04855247586965561,
          0.05960932374000549,
          -0.13961796462535858
        ],
        [
          -0.22537358105182648,
          0.13121181726455688,
          0.1717897653579712,
          -0.11064056307077408
        ],
        [
          -0.4502672255039215,
          0.3228958547115326,
          0.11505615711212158,
          -0.06538171321153641
        ]
      ],
      [
        [
          -0.33687153458595276,
          0.12019246816635132,
          0.14378266036510468,
          0.024857521057128906
        ],
        [
          -0.21602047979831696,
          -0.3222084045410156,
          0.1184053122997284,
          -0.3483121395111084
        ],
        [
          0.38385069370269775,
          -0.3829275965690613,
          -0.15750953555107117,
          -0.20156608521938324
        ],
        [
          -0.29250141978263855,
          0.13529355823993683,
          0.056181348860263824,
          -0.19201242923736572
        ]
      ],
      [
        [
          -0.6285440325737,
          0.3477763533592224,
          0.19445043802261353,
          -0.023299014195799828
        ],
        [
          -0.3903237581253052,
          -0.20245127379894257,
          0.012266851961612701,
          -0.04009925201535225
        ],
        [
          0.5311523675918579,
          -0.3188824951648712,
          -0.21860067546367645,
          0.12605585157871246
        ],
        [
          0.34627068042755127,
          -0.44594717025756836,
          -0.3133513927459717,
          -0.018314121291041374
        ]
      ],
      [
        [
          0.26596659421920776,
          -0.31920477747917175,
          -0.2886124551296234,
          -0.23011177778244019
        ],
        [
          -0.3845779597759247,
          -0.25383907556533813,
          -0.14119072258472443,
          -0.41897323727607727
        ],
        [
          -0.5650172233581543,
          0.5196565985679626,
          0.25787338614463806,
          0.1828872114419937
        ],
        [
          -0.1931229680776596,
          0.04010464996099472,
          0.10810251533985138,
          -0.18986986577510834
        ]
      ],
      [
        [
          -0.11261137574911118,
          -0.3076826333999634,
          -0.0444931723177433,
          -0.0906710997223854
        ],
        [
          0.28165313601493835,
          -0.820919394493103,
          -0.341852068901062,
          0.09343751519918442
        ],
        [
          0.3758886754512787,
          -0.45246922969818115,
          -0.3791376054286957,
          0.3478928804397583
        ],
        [
          0.00007020455086603761,
          -0.2549945116043091,
          -0.18723323941230774,
          -0.01796429604291916
        ]
      ],
      [
        [
          -0.23347952961921692,
          0.07871498912572861,
          0.12319037318229675,
          -0.25458791851997375
        ],
        [
          -0.6065856218338013,
          0.16989551484584808,
          0.3999362885951996,
          -0.2609598934650421
        ],
        [
          0.11450508236885071,
          0.14341291785240173,
          0.299068421125412,
          0.12775424122810364
        ],
        [
          -0.13227489590644836,
          0.14810843765735626,
          0.07575768232345581,
          0.1290738880634308
        ]
      ],
      [
        [
          -0.2874670922756195,
          0.23307114839553833,
          0.11775946617126465,
          0.03963365778326988
        ],
        [
          -0.397764652967453,
          0.03774258494377136,
          0.13989460468292236,
          -0.2800828516483307
        ],
        [
          0.09542420506477356,
          -0.012770885601639748,
          0.035543471574783325,
          -0.011323978193104267
        ],
        [
          -0.087947316467762,
          0.1233525201678276,
          0.21143922209739685,
          0.14129334688186646
        ]
      ],
      [
        [
          -0.35088351368904114,
          0.1452004760503769,
          0.2197529524564743,
          0.3011666238307953
        ],
        [
          -0.37730100750923157,
          0.1113385558128357,
          0.36720746755599976,
          0.17845211923122406
        ],
        [
          0.20922063291072845,
          -0.07642511278390884,
          -0.09144127368927002,
          0.13602299988269806
        ],
        [
          0.46653369069099426,
          -0.3888552188873291,
          -0.1351383477449417,
          0.19704316556453705
        ]
      ],
      [
        [
          0.3129185438156128,
          -0.353131502866745,
          0.29713958501815796,
          -0.5011268854141235
        ],
        [
          0.32332155108451843,
          0.05234513804316521,
          0.8235511779785156,
          -0.571268618106842
        ],
        [
          -0.3398292362689972,
          0.3495781123638153,
          0.3685528635978699,
          -0.36474892497062683
        ],
        [
          -0.02085534855723381,
          0.22841012477874756,
          1.2068026065826416,
          -1.5404216051101685
        ]
      ],
      [
        [
          0.193189799785614,
          0.03927719593048096,
          0.0878608226776123,
          0.18080741167068481
        ],
        [
          0.17488497495651245,
          -0.2379140853881836,
          0.2294943928718567,
          -0.22603577375411987
        ],
        [
          0.16298526525497437,
          -0.01653456687927246,
          0.1614701747894287,
          -0.2354934811592102
        ],
        [
          -0.025507986545562744,
          -0.23582541942596436,
          -0.17430639266967773,
          0.10061132907867432
        ]
      ]
    ]
  },
  "dense": {
    "bias:0": [
      -0.0027054783422499895
    ],
    "kernel:0": [
      [
        -0.24265575408935547
      ],
      [
        0.19904470443725586
      ],
      [
        0.15232853591442108
      ],
      [
        0.0005230255774222314
      ],
      [
        0.3343955874443054
      ],
      [
        0.31420621275901794
      ],
      [
        -0.22934827208518982
      ],
      [
        -0.00009563297498971224
      ],
      [
        0.32552438974380493
      ],
      [
        -0.01127100270241499
      ],
      [
        -0.11457864195108414
      ],
      [
        -0.2777017652988434
      ],
      [
        -0.1768646091222763
      ],
      [
        0.08783632516860962
      ],
      [
        0.2752017080783844
      ],
      [
        0.2955247759819031
      ],
      [
        0.2529337704181671
      ],
      [
        0.14576928317546844
      ],
      [
        -0.01584998518228531
      ],
      [
        0.000720861426088959
      ],
      [
        -0.17122358083724976
      ],
      [
        0.3010927438735962
      ],
      [
        0.4322926104068756
      ],
      [
        -0.0001727215276332572
      ]
    ]
  },
  "lstm": {
    "lstm_cell": {},
    "kernel:0": [
      [
        -0.4199524223804474,
        0.18296225368976593,
        -1.167635440826416,
        -0.12031473219394684,
        0.6545755863189697,
        -0.746502161026001,
        0.4057919979095459,
        -0.20812836289405823,
        -0.10480646044015884,
        -1.6201684474945068,
        0.47749486565589905,
        -1.1627476215362549,
        1.7137563228607178,
        -0.4284411072731018,
        0.6097593307495117,
        0.6558946967124939,
        -0.44157639145851135,
        -0.5120982527732849,
        0.14580270648002625,
        0.26041126251220703,
        1.4693909883499146,
        0.6151277422904968,
        -0.4423634111881256,
        0.5591738820075989,
        0.1854083091020584,
        0.19517578184604645,
        0.2187420278787613,
        -0.07601819932460785,
        0.21030376851558685,
        0.053082093596458435,
        -0.23291422426700592,
        -0.033807575702667236,
        0.13168935477733612,
        0.01544712483882904,
        0.14336787164211273,
        -0.14357781410217285,
        0.019662365317344666,
        -0.13750967383384705,
        -0.200578510761261,
        0.1963397115468979,
        -0.0703938901424408,
        -0.029041454195976257,
        0.21481864154338837,
        -0.10715892910957336,
        0.150054469704628,
        0.21672208607196808,
        -0.13814201951026917,
        0.04784421622753143,
        -0.2359967678785324,
        -0.021333057433366776,
        -0.3584412932395935,
        -0.00012427834735717624,
        0.2926163673400879,
        -0.2873252332210541,
        0.3273460566997528,
        0.00020112062338739634,
        -0.07187134772539139,
        -0.18518024682998657,
        0.04386031627655029,
        0.18471041321754456,
        0.023350849747657776,
        -0.14582963287830353,
        -0.378959059715271,
        -0.4744805693626404,
        -0.39903631806373596,
        0.06857995688915253,
        -0.0022332880180329084,
        -0.0035184379667043686,
        0.46383196115493774,
        -0.3688669204711914,
        -0.020024757832288742,
        0.001999601721763611,
        -1.0765624046325684,
        -0.10677185654640198,
        0.010008293204009533,
        -0.15132281184196472,
        -0.2886095941066742,
        1.5683494806289673,
        0.20482011139392853,
        -0.2838515341281891,
        -0.16470232605934143,
        0.8876199126243591,
        -0.01307712122797966,
        -0.529969334602356,
        0.508257269859314,
        0.72901451587677,
        0.3820764720439911,
        -1.3573015928268433,
        -0.5713570713996887,
        -0.4087543487548828,
        -0.1454746574163437,
        -0.3464747965335846,
        0.09749426692724228,
        0.03718604892492294,
        -0.9401886463165283,
        -0.17566165328025818
      ],
      [
        0.2165883332490921,
        0.2683075964450836,
        0.525019645690918,
        -0.13859546184539795,
        -0.5700950622558594,
        1.114426612854004,
        -0.5413458347320557,
        0.0679677277803421,
        -0.19880962371826172,
        -1.1068754196166992,
        0.23782746493816376,
        0.5914109349250793,
        -2.074246406555176,
        -0.18456730246543884,
        -1.2752856016159058,
        1.1056560277938843,
        0.34854692220687866,
        -0.4658162295818329,
        -0.01777419075369835,
        -0.034207265824079514,
        -0.3416353166103363,
        0.27169257402420044,
        0.0628601461648941,
        -0.04281012713909149,
        -0.1331169605255127,
        -0.16240260004997253,
        0.2387029379606247,
        -0.17336948215961456,
        -0.08428436517715454,
        -0.13539761304855347,
        0.22739852964878082,
        -0.18764324486255646,
        -0.030552804470062256,
        0.1976621299982071,
        0.17134274542331696,
        0.019967153668403625,
        -0.08730646967887878,
        0.14725132286548615,
        -0.2402038723230362,
        0.07862542569637299,
        -0.14418885111808777,
        0.21439190208911896,
        -0.1038389801979065,
        -0.20207735896110535,
        -0.14835286140441895,
        0.22455830872058868,
        0.0900273472070694,
        -0.12916944921016693,
        -0.20874419808387756,
        -0.30003300309181213,
        -0.13423849642276764,
        0.0009994962019845843,
        0.26341894268989563,
        -0.8536995053291321,
        0.3686010539531708,
        -0.00019667783635668457,
        0.07652733474969864,
        -0.424699068069458,
        0.19263237714767456,
        -0.01043692883104086,
        -0.6912755966186523,
        0.030822936445474625,
        -0.21035262942314148,
        -0.5564784407615662,
        0.29040026664733887,
        0.35118839144706726,
        0.004296778701245785,
        -0.0025278932880610228,
        -0.08754799515008926,
        0.14395476877689362,
        -0.233880877494812,
        0.00026642525335773826,
        -1.103663682937622,
        -0.10597793757915497,
        0.41899433732032776,
        -0.10014352947473526,
        1.9085842370986938,
        -0.3117215037345886,
        -0.08039813488721848,
        0.2931573987007141,
        0.20021677017211914,
        -0.36936190724372864,
        0.20944561064243317,
        1.0922237634658813,
        1.5558863878250122,
        0.24116165935993195,
        -0.4087362587451935,
        0.14304882287979126,
        -0.22284908592700958,
        0.22869007289409637,
        0.14359959959983826,
        -0.1938009411096573,
        -1.2911649942398071,
        -1.5881786346435547,
        -0.15219080448150635,
        -0.06963296234607697
      ],
      [
        -1.1545064449310303,
        -0.1215333640575409,
        0.8900114893913269,
        -0.3427240252494812,
        0.7983319759368896,
        -1.3439934253692627,
        -0.2596610486507416,
        -0.3183774948120117,
        -1.0648629665374756,
        0.2757604420185089,
        -0.8013346791267395,
        1.0806386470794678,
        -0.599074125289917,
        -0.36036601662635803,
        0.2067357897758484,
        0.025415528565645218,
        0.25903499126434326,
        -0.934718906879425,
        0.08777645230293274,
        -0.09329582005739212,
        0.6636073589324951,
        -0.5272828936576843,
        -1.2739226818084717,
        0.007371088489890099,
        0.20199857652187347,
        0.056323543190956116,
        -0.20230576395988464,
        -0.12832456827163696,
        0.029572024941444397,
        -0.2177990972995758,
        0.06423516571521759,
        -0.04504877328872681,
        -0.1320362091064453,
        0.0072966068983078,
        0.06715770065784454,
        0.02404467761516571,
        0.15091349184513092,
        -0.22073663771152496,
        -0.23340852558612823,
        0.06942887604236603,
        -0.0831523984670639,
        0.17731694877147675,
        -0.08247536420822144,
        -0.11075492203235626,
        0.2439739853143692,
        0.1547228842973709,
        0.06506820023059845,
        0.2108481079339981,
        0.7335842251777649,
        0.8877374529838562,
        0.22023698687553406,
        0.00020149943884462118,
        -0.17484711110591888,
        0.034442562609910965,
        -0.025347668677568436,
        0.000586474547162652,
        -0.3010058104991913,
        -0.18724298477172852,
        -0.17869848012924194,
        -0.0363181009888649,
        0.2786652445793152,
        0.09017892181873322,
        0.37493088841438293,
        0.12324915826320648,
        0.39530056715011597,
        0.14638696610927582,
        0.007875234819948673,
        -0.00011893032205989584,
        0.2472996711730957,
        -0.32825079560279846,
        1.3238391876220703,
        0.0011153897503390908,
        -0.029766391962766647,
        -1.054190754890442,
        1.285802960395813,
        -0.43545350432395935,
        0.6547731161117554,
        0.8201009631156921,
        0.6884592175483704,
        -0.16885234415531158,
        -0.9258298277854919,
        -0.14817427098751068,
        -0.1440432220697403,
        -1.7932026386260986,
        -0.08416950702667236,
        -0.7599426507949829,
        0.8668658137321472,
        -0.32641345262527466,
        -0.22880496084690094,
        -1.2392067909240723,
        0.0627894476056099,
        -0.00010934038436971605,
        1.3676280975341797,
        -2.113164186477661,
        -0.5622124075889587,
        -0.13227732479572296
      ],
      [
        0.2311430424451828,
        1.4533549547195435,
        -0.12146905064582825,
        0.21265724301338196,
        0.2811712920665741,
        0.43838927149772644,
        0.1042943075299263,
        -0.22323022782802582,
        2.1285204887390137,
        0.5958257913589478,
        -0.1305314600467682,
        0.559767484664917,
        -1.075202226638794,
        -0.4216919243335724,
        0.5493838787078857,
        0.5724191069602966,
        -0.7810370326042175,
        0.5582402348518372,
        -0.09217154234647751,
        0.20183470845222473,
        -1.0346125364303589,
        -0.50337815284729,
        -0.7905787825584412,
        0.1343306303024292,
        0.0877954512834549,
        -0.21590067446231842,
        -0.00853334367275238,
        0.1745193749666214,
        0.05370570719242096,
        -0.2365998774766922,
        -0.03766480088233948,
        -0.23338095843791962,
        0.2145928591489792,
        -0.09016120433807373,
        0.09542600810527802,
        0.07981716096401215,
        0.18946392834186554,
        0.05577249825000763,
        -0.03598567843437195,
        0.05909641087055206,
        0.08422182500362396,
        0.1400844305753708,
        -0.1230979636311531,
        0.23616181313991547,
        0.07466547191143036,
        0.1206343024969101,
        0.06789149343967438,
        0.012883350253105164,
        -0.20434002578258514,
        0.8950256109237671,
        -0.06062610074877739,
        -0.000908561167307198,
        -0.6850606799125671,
        0.027740202844142914,
        0.4422127604484558,
        -0.0000465651392005384,
        0.20430819690227509,
        0.2138410359621048,
        -0.08106981217861176,
        0.5647067427635193,
        0.14378279447555542,
        -0.12310865521430969,
        0.05816155672073364,
        -0.2184354066848755,
        -0.17625387012958527,
        0.011310173198580742,
        0.008901234716176987,
        0.006902925204485655,
        -0.5201913714408875,
        -0.4049070179462433,
        -0.1365753412246704,
        -0.001838940312154591,
        -0.9355378150939941,
        1.148110270500183,
        -0.9866705536842346,
        0.30477216839790344,
        -1.2509773969650269,
        1.0330227613449097,
        -0.0684611052274704,
        -0.12106682360172272,
        0.6970862746238708,
        0.8781651854515076,
        -0.5386788249015808,
        1.471217155456543,
        -0.16352136433124542,
        0.0650714710354805,
        -0.7727665305137634,
        0.28908973932266235,
        0.18461839854717255,
        0.3099154233932495,
        -0.0834268108010292,
        -0.2815280854701996,
        1.9046224355697632,
        -0.03419066593050957,
        -0.460757315158844,
        -0.4287888705730438
      ]
    ],
    "bias:0": [
      -0.5574649572372437,
      -2.1232028007507324,
      -2.6919689178466797,
      -0.3257827162742615,
      -2.525179386138916,
      -1.8336941003799438,
      -0.5759288668632507,
      -0.45344531536102295,
      -2.9866955280303955,
      -1.2861170768737793,
      -0.677936315536499,
      -0.4756287932395935,
      -2.380718469619751,
      -0.5419313907623291,
      -2.0282046794891357,
      -0.5033560991287231,
      -0.6765627861022949,
      -2.0107226371765137,
      -0.21833966672420502,
      -0.3458903729915619,
      -1.816580057144165,
      -0.5209686756134033,
      -2.938390016555786,
      -0.37973853945732117,
      1,
      1,
      1,
      1,
      1,
      1,
      1,
      1,
      1,
      1,
      1,
      1,
      1,
      1,
      1,
      1,
      1,
      1,
      1,
      1,
      1,
      1,
      1,
      1,
      -0.5011872053146362,
      -0.12412738054990768,
      0.1296558827161789,
      -0.00024139790912158787,
      -0.21862287819385529,
      0.3043864965438843,
      -0.0915994793176651,
      -0.00023443979443982244,
      -0.8142524361610413,
      -0.40495947003364563,
      -0.09586998075246811,
      -0.7416278123855591,
      0.6627265214920044,
      -0.053874269127845764,
      0.22707156836986542,
      0.00023987601161934435,
      -0.05085573345422745,
      -0.4276718199253082,
      -0.0023162267170846462,
      0.0007974273758009076,
      0.32769447565078735,
      0.07372760772705078,
      -0.3690219521522522,
      -0.0018428306793794036,
      -1.6626834869384766,
      -2.5497472286224365,
      -0.9697360396385193,
      -0.3410020172595978,
      -1.9509347677230835,
      -1.1154546737670898,
      -0.3329416513442993,
      -0.47635701298713684,
      -2.431370735168457,
      -1.9571924209594727,
      -0.4273155629634857,
      -0.6855732202529907,
      -1.7819912433624268,
      -0.5218721628189087,
      -2.2624974250793457,
      -0.5082007050514221,
      -0.3822084963321686,
      -1.8031708002090454,
      -0.2207896113395691,
      -0.3634542226791382,
      -1.3176372051239014,
      -0.8979222178459167,
      -3.1941170692443848,
      -0.3421635925769806
    ]
  },
  "input_size": 120,
  "conv1d_stride": 12,
  "conv1d_1_stride": 12
}
